// #### Generated By: http://www.cufonfonts.com ####
/*!
 * The following copyright notice may not be removed under any circumstances.
 * 
 * Copyright:
 * copyright dirk schaechter 2001  www.designsalon.de
 */
Cufon.registerFont({"w":1061,"face":{"font-family":"spaceman","font-weight":400,"font-stretch":"normal","units-per-em":"1000","panose-1":"0 0 4 0 0 0 0 0 0 0","ascent":"800","descent":"-200","x-height":"1","bbox":"-0.186492 -931 1158 227","underline-thickness":"25","underline-position":"-143","unicode-range":"U+0020-U+0131"},"glyphs":{" ":{"w":668},"!":{"d":"0,-778r192,0r0,583r-192,0r0,-583xm0,0r0,-133r192,0r0,133r-192,0","w":342},"\"":{"w":472},"#":{"w":539},"$":{"w":636},"%":{"w":535},"&":{"w":907},"'":{"d":"0,-778r0,-134r161,0r0,134r-44,133r-73,0","w":244},"(":{"d":"0,-931r306,0r0,153r-153,0r0,778r153,0r0,153r-306,0r0,-1084","w":471},")":{"d":"306,-931r0,1084r-306,0r0,-153r153,0r0,-778r-153,0r0,-153r306,0","w":458},"*":{"w":382},"+":{"d":"0,-469r323,-1r0,-161r161,0r0,161r359,1r0,161r-359,-1r0,162r-161,0r0,-162r-323,1r0,-161","w":966},",":{"d":"182,0r-182,0r0,-133r263,0v-4,93,18,175,-44,221v-13,10,-24,18,-37,23r0,-111","w":428},"-":{"d":"0,-470r662,1r0,161r-662,-1r0,-161","w":787},"\u2010":{"d":"0,-470r662,1r0,161r-662,-1r0,-161","w":787},".":{"d":"0,0r0,-133r161,0r0,133r-161,0","w":332},"\/":{"d":"0,0r693,-778r184,0r-681,778r-196,0","w":893},"0":{"d":"7,-368v-3,-111,96,-207,207,-207r536,0v112,-3,207,95,207,207r0,162v3,111,-96,207,-207,207r-536,0v-110,3,-207,-97,-207,-207r0,-162xm264,-445v-45,-1,-85,40,-85,85r0,138v-1,45,40,85,85,85r428,0v45,1,85,-40,85,-85r0,-138v1,-45,-40,-85,-85,-85r-428,0xm417,-354r140,0r0,124r-140,0r0,-124","w":1104},"1":{"d":"870,-278v1,-174,-95,-278,-267,-278r-603,0r0,131r581,0v64,3,90,29,112,84r0,341r177,0r0,-278","w":1041},"2":{"d":"175,-340v-102,-1,-175,67,-175,170r0,170r913,0r0,-131r-704,1v-37,0,-56,-14,-56,-43v0,-28,19,-42,56,-42r529,-1v102,1,175,-66,175,-169v0,-102,-66,-171,-175,-171r-707,-2r0,131r674,2v37,0,55,14,55,42v0,28,-18,42,-55,42","w":1039},"3":{"d":"694,-216v-21,55,-50,85,-113,85r-581,0r0,131r603,0v172,1,267,-104,267,-278v0,-174,-95,-278,-267,-278r-603,0r0,131r581,0v65,4,87,27,113,84r-568,0r0,125r568,0","w":1022},"4":{"d":"4,-558v-26,201,70,335,263,335r610,-1r0,222r167,0r0,-556r-167,0r0,195r-588,1v-96,5,-131,-103,-107,-196r-178,0","w":1211},"5":{"d":"175,-218v-102,1,-175,-68,-175,-170r0,-170r876,0r0,131r-725,-1v-1,53,3,86,58,85r529,0v102,-1,175,67,175,170v0,102,-66,171,-175,171r-738,2r0,-131r705,-2v37,0,55,-14,55,-42v0,-29,-18,-43,-55,-43r-530,0","w":1039},"6":{"d":"167,-341v2,-55,25,-84,89,-84r627,0r0,-131r-667,0v-138,1,-216,72,-216,217r0,339r745,0v109,1,176,-62,176,-171v0,-109,-68,-171,-176,-170r-578,0xm167,-131r0,-85r535,0v35,0,52,14,52,43v0,28,-17,42,-52,42r-535,0","w":1096},"7":{"d":"870,-278v1,-174,-95,-278,-267,-278r-603,0r0,131r581,0v64,3,90,29,112,84r-288,-2r0,131r288,-1r0,213r177,0r0,-278","w":1041},"8":{"d":"7,-368v-3,-111,96,-207,207,-207r536,0v112,-3,207,95,207,207r0,162v3,111,-96,207,-207,207r-536,0v-110,3,-207,-97,-207,-207r0,-162xm264,-445v-45,-1,-85,40,-85,85r0,138v-1,45,40,85,85,85r428,0v45,1,85,-40,85,-85r0,-138v1,-45,-40,-85,-85,-85r-428,0xm177,-354r600,0r0,124r-600,0r0,-124","w":1104},"9":{"d":"754,-216v1,59,-27,85,-89,85r-626,0r0,131r667,0v135,-5,215,-66,215,-217r0,-339r-745,0v-108,-1,-176,63,-176,171v0,106,70,170,176,169r578,0xm754,-426r0,85r-534,0v-35,0,-53,-14,-53,-42v0,-29,18,-43,53,-43r534,0","w":1096},":":{"d":"0,0r0,-133r161,0r0,133r-161,0xm0,-320r0,-133r161,0r0,133r-161,0","w":302},";":{"d":"0,-316r0,-137r263,0r0,137r-263,0xm182,0r-182,0r0,-133r263,0v-4,93,18,175,-44,221v-13,10,-24,18,-37,23r0,-111","w":428},"<":{"w":264},"=":{"d":"0,-352r635,-2r0,123r-635,0r0,-121xm0,-547r635,0r0,121r-635,-1r0,-120","w":806},">":{"w":232},"?":{"d":"413,-133r0,133r-192,0r0,-133r192,0xm221,-188v-13,-173,78,-281,237,-282r341,0v53,0,80,-24,80,-71v0,-47,-27,-71,-80,-71r-799,0r0,-166r817,-1v141,-1,227,93,227,236v0,149,-87,234,-227,234r-315,0v-67,-1,-99,45,-89,121r-192,0","w":1218},"@":{"d":"305,-388v0,55,25,70,85,70r436,0r0,-146r-439,0v-55,0,-82,25,-82,76xm339,-62v-218,3,-334,-116,-339,-327v-4,-168,93,-282,227,-315v106,-26,574,-16,605,-3v56,23,105,70,105,151r0,316r-579,0v-98,2,-164,-54,-164,-148v0,-106,69,-154,188,-154r444,0v-2,-97,-62,-97,-185,-100v-135,-3,-342,-4,-427,22v-86,26,-136,115,-136,231v0,166,96,250,261,250r483,0r0,77r-483,0","w":1060},"A":{"d":"754,-341v0,-61,-24,-84,-89,-84r-626,0r0,-131r667,0v135,5,215,66,215,217r0,339r-745,0v-108,1,-176,-63,-176,-171v0,-107,69,-171,176,-170r578,0xm754,-131r0,-85r-534,0v-35,0,-53,14,-53,43v0,28,18,42,53,42r534,0","w":1096},"B":{"d":"969,-278v0,176,-93,278,-267,278r-702,0r0,-778r167,0r0,222r535,0v170,-2,267,101,267,278xm794,-278v0,-81,-38,-139,-114,-139r-513,0r0,278r513,0v76,0,114,-58,114,-139","w":1097},"C":{"d":"0,-278v0,-173,94,-278,267,-278r595,0r0,139r-573,0v-76,0,-114,58,-114,139v0,81,38,139,114,139r573,0r0,139r-595,0v-173,1,-267,-105,-267,-278","w":1022},"D":{"d":"0,-278v-1,-176,93,-278,267,-278r521,0r0,-222r167,0r0,778r-688,0v-171,2,-266,-102,-267,-278xm175,-278v0,81,38,139,114,139r499,0r0,-278r-499,0v-76,0,-114,58,-114,139","w":1130},"E":{"d":"176,-216v24,58,48,85,113,85r581,0r0,131r-603,0v-173,1,-267,-105,-267,-278v0,-173,94,-278,267,-278r603,0r0,131r-581,0v-65,4,-87,27,-113,84r694,0r0,125r-694,0","w":1022},"F":{"d":"105,-341v-10,-142,29,-222,167,-222r501,1r0,130r-423,0v-60,-4,-81,31,-78,91r501,-2r0,131r-501,2r0,425r-167,0r0,-425r-105,0r0,-131r105,0","w":906},"G":{"d":"0,-278v0,-173,94,-278,267,-278r770,1r0,571v3,126,-82,208,-203,208r-773,-2r0,-130r743,1v55,0,68,-33,66,-93r-603,0v-173,1,-267,-105,-267,-278xm175,-278v0,81,37,139,114,139r581,-2r0,-275r-581,-1v-76,0,-114,58,-114,139","w":1204},"H":{"d":"735,-359v1,-35,-25,-58,-58,-58r-510,0r0,417r-167,0r0,-778r167,0r0,222r537,0v116,-4,198,68,198,170r0,386r-167,0r0,-359"},"I":{"d":"167,0r-167,0r0,-556r167,0r0,556xm167,-612r-167,0r0,-133r167,0r0,133","w":334},"J":{"d":"743,-612r-167,0r0,-133r167,0r0,133xm743,40v-5,114,-100,182,-221,182r-522,0r0,-139r510,0v44,0,66,-24,66,-73r0,-566r167,0r0,596","w":916},"K":{"d":"767,-481r146,0r0,-77r-146,0r0,77xm1040,-2v25,-199,-69,-334,-263,-334r-610,1r0,-442r-167,0r0,775r167,0r0,-195r588,0v95,-4,128,100,107,195r178,0xm914,-481v0,97,-49,145,-146,145r0,-145r146,0xm767,-481v4,77,-98,149,-175,146r175,0r0,-146","w":1195},"L":{"d":"183,-299v0,80,47,132,132,132r523,0r0,167r-569,0v-174,4,-268,-107,-268,-282r0,-276r182,0r0,259","w":996},"M":{"d":"961,-556v116,-4,197,66,197,170r0,386r-167,0r0,-359v0,-39,-19,-58,-58,-58r-273,0r0,417r-167,0r0,-417r-326,0r0,417r-167,0r0,-556r961,0","w":1312},"N":{"d":"688,-556v116,-4,198,68,198,170r0,386r-167,0r0,-359v0,-39,-19,-58,-58,-58r-494,0r0,417r-167,0r0,-556r688,0","w":1057},"O":{"d":"7,-368v-3,-111,96,-207,207,-207r536,0v112,-3,207,95,207,207r0,162v3,111,-96,207,-207,207r-536,0v-110,3,-207,-97,-207,-207r0,-162xm264,-445v-45,-1,-85,40,-85,85r0,138v-1,45,40,85,85,85r428,0v45,1,85,-40,85,-85r0,-138v1,-45,-40,-85,-85,-85r-428,0","w":1104},"P":{"d":"986,-278v1,176,-93,278,-267,278r-552,0r0,222r-167,0r0,-778r719,0v171,-2,266,102,267,278xm811,-278v0,-81,-38,-139,-114,-139r-530,0r0,278r530,0v76,0,114,-58,114,-139","w":1141},"Q":{"d":"0,-278v-1,-176,93,-278,267,-278r777,2r0,776r-167,0r0,-223r-610,1v-171,2,-266,-102,-267,-278xm175,-278v0,81,38,139,114,139r588,-1r0,-275r-588,-2v-77,0,-114,58,-114,139","w":1211},"R":{"d":"610,-558v134,0,213,83,197,228r-167,0v4,-51,-8,-86,-58,-86r-415,-1r0,417r-167,0r0,-556","w":950},"S":{"d":"913,-170v0,103,-65,170,-175,170r-738,0r0,-131r705,1v37,0,55,-14,55,-43v0,-28,-18,-42,-55,-42r-530,-1v-102,1,-175,-66,-175,-169v0,-101,66,-171,175,-171r708,0r0,131r-675,0v-37,0,-55,14,-55,42v0,28,18,42,55,42r530,1v102,-1,175,67,175,170","w":1039},"T":{"d":"267,-208v1,58,20,77,78,77r425,0r0,131r-504,0v-116,-3,-166,-47,-166,-167r0,-258r-100,0r0,-131r100,0r0,-222r167,0r0,222r503,0r0,131r-503,0r0,217","w":917},"U":{"d":"198,0v-119,6,-198,-71,-198,-170r0,-386r167,0r0,358v0,39,19,59,58,59r506,0r0,-417r167,0r0,556r-700,0"},"V":{"d":"167,-139r564,0r0,-417r167,0r0,556r-898,0r0,-556r167,0r0,417"},"W":{"d":"197,0v-115,4,-197,-68,-197,-170r0,-386r167,0r0,358v0,39,19,59,58,59r273,0r0,-417r167,0r0,417r326,0r0,-417r167,0r0,556r-961,0","w":1323},"X":{"d":"132,-208r646,0r0,-131r-646,0r0,131xm1,-138v-2,-70,61,-133,131,-131r0,131r-131,0xm0,-138r132,0r0,138r-132,0r0,-138xm1,-396v-2,71,61,133,131,131r0,-131r-131,0xm0,-396r132,0r0,-158r-132,0r0,158xm909,-138v2,-70,-61,-133,-131,-131r0,131r131,0xm910,-138r-132,0r0,138r132,0r0,-138xm909,-396v2,71,-61,133,-131,131r0,-131r131,0xm910,-396r-132,0r0,-158r132,0r0,158xm133,-454v-2,62,53,117,115,115r-115,0r0,-115xm133,-94v-2,-62,53,-117,115,-115r-115,0r0,115xm777,-454v2,62,-53,117,-115,115r115,0r0,-115xm778,-93v2,-62,-54,-117,-115,-115r115,0r0,115","w":1017},"Y":{"d":"754,92v53,-1,68,-31,66,-92r-622,0v-119,6,-198,-71,-198,-170r0,-386r167,0r0,336v-1,49,32,82,81,81r572,0r0,-417r167,0r0,576v3,124,-85,207,-204,207r-769,0r0,-135r740,0","w":1169},"Z":{"d":"0,-170v0,101,66,170,175,170r738,0r0,-131r-704,1v-37,0,-56,-14,-56,-43v0,-28,19,-42,56,-42r529,-1v102,1,175,-66,175,-169v0,-102,-66,-171,-175,-171r-707,-2r0,131r674,2v37,0,55,14,55,42v0,28,-18,42,-55,42r-530,1v-102,-1,-175,67,-175,170","w":1039},"[":{"d":"0,-931r306,0r0,153r-153,0r0,778r153,0r0,153r-306,0r0,-1084","w":361},"\\":{"d":"877,0r-692,-778r-185,0r681,778r196,0","w":942},"]":{"w":366},"^":{"w":406},"_":{"d":"0,61r1001,0r0,161r-1001,0r0,-161","w":1172},"`":{"d":"0,-806r94,0r112,111r-95,0","w":261},"a":{"d":"754,-341v0,-61,-24,-84,-89,-84r-626,0r0,-131r667,0v135,5,215,66,215,217r0,339r-745,0v-108,1,-176,-63,-176,-171v0,-107,69,-171,176,-170r578,0xm754,-131r0,-85r-534,0v-35,0,-53,14,-53,43v0,28,18,42,53,42r534,0","w":1096},"b":{"d":"969,-278v0,176,-93,278,-267,278r-702,0r0,-778r167,0r0,222r535,0v170,-2,267,101,267,278xm794,-278v0,-81,-38,-139,-114,-139r-513,0r0,278r513,0v76,0,114,-58,114,-139","w":1097},"c":{"d":"0,-278v0,-173,94,-278,267,-278r595,0r0,139r-573,0v-76,0,-114,58,-114,139v0,81,38,139,114,139r573,0r0,139r-595,0v-173,1,-267,-105,-267,-278","w":1022},"d":{"d":"0,-278v-1,-176,93,-278,267,-278r521,0r0,-222r167,0r0,778r-688,0v-171,2,-266,-102,-267,-278xm175,-278v0,81,38,139,114,139r499,0r0,-278r-499,0v-76,0,-114,58,-114,139","w":1130},"e":{"d":"176,-216v24,58,48,85,113,85r581,0r0,131r-603,0v-173,1,-267,-105,-267,-278v0,-173,94,-278,267,-278r603,0r0,131r-581,0v-65,4,-87,27,-113,84r694,0r0,125r-694,0","w":1022},"f":{"d":"105,-341v-10,-142,29,-222,167,-222r501,1r0,130r-423,0v-60,-4,-81,31,-78,91r501,-2r0,131r-501,2r0,425r-167,0r0,-425r-105,0r0,-131r105,0","w":906},"g":{"d":"0,-278v0,-173,94,-278,267,-278r770,1r0,571v3,126,-82,208,-203,208r-773,-2r0,-130r743,1v55,0,68,-33,66,-93r-603,0v-173,1,-267,-105,-267,-278xm175,-278v0,81,37,139,114,139r581,-2r0,-275r-581,-1v-76,0,-114,58,-114,139","w":1204},"h":{"d":"735,-359v1,-35,-25,-58,-58,-58r-510,0r0,417r-167,0r0,-778r167,0r0,222r537,0v116,-4,198,68,198,170r0,386r-167,0r0,-359"},"i":{"d":"167,0r-167,0r0,-556r167,0r0,556xm167,-612r-167,0r0,-133r167,0r0,133","w":334},"j":{"d":"743,-612r-167,0r0,-133r167,0r0,133xm743,40v-5,114,-100,182,-221,182r-522,0r0,-139r510,0v44,0,66,-24,66,-73r0,-566r167,0r0,596","w":916},"k":{"d":"767,-481r146,0r0,-77r-146,0r0,77xm1040,-2v25,-199,-69,-334,-263,-334r-610,1r0,-442r-167,0r0,775r167,0r0,-195r588,0v95,-4,128,100,107,195r178,0xm914,-481v0,97,-49,145,-146,145r0,-145r146,0xm767,-481v4,77,-98,149,-175,146r175,0r0,-146","w":1195},"l":{"d":"183,-299v0,80,47,132,132,132r523,0r0,167r-569,0v-174,4,-268,-107,-268,-282r0,-276r182,0r0,259","w":996},"m":{"d":"961,-556v116,-4,197,66,197,170r0,386r-167,0r0,-359v0,-39,-19,-58,-58,-58r-273,0r0,417r-167,0r0,-417r-326,0r0,417r-167,0r0,-556r961,0","w":1312},"n":{"d":"688,-556v116,-4,198,68,198,170r0,386r-167,0r0,-359v0,-39,-19,-58,-58,-58r-494,0r0,417r-167,0r0,-556r688,0","w":1057},"o":{"d":"7,-368v-3,-111,96,-207,207,-207r536,0v112,-3,207,95,207,207r0,162v3,111,-96,207,-207,207r-536,0v-110,3,-207,-97,-207,-207r0,-162xm264,-445v-45,-1,-85,40,-85,85r0,138v-1,45,40,85,85,85r428,0v45,1,85,-40,85,-85r0,-138v1,-45,-40,-85,-85,-85r-428,0","w":1104},"p":{"d":"986,-278v1,176,-93,278,-267,278r-552,0r0,222r-167,0r0,-778r719,0v171,-2,266,102,267,278xm811,-278v0,-81,-38,-139,-114,-139r-530,0r0,278r530,0v76,0,114,-58,114,-139","w":1141},"q":{"d":"0,-278v-1,-176,93,-278,267,-278r777,2r0,776r-167,0r0,-223r-610,1v-171,2,-266,-102,-267,-278xm175,-278v0,81,38,139,114,139r588,-1r0,-275r-588,-2v-77,0,-114,58,-114,139","w":1211},"r":{"d":"610,-558v134,0,213,83,197,228r-167,0v4,-51,-8,-86,-58,-86r-415,-1r0,417r-167,0r0,-556","w":950},"s":{"d":"913,-170v0,103,-65,170,-175,170r-738,0r0,-131r705,1v37,0,55,-14,55,-43v0,-28,-18,-42,-55,-42r-530,-1v-102,1,-175,-66,-175,-169v0,-101,66,-171,175,-171r708,0r0,131r-675,0v-37,0,-55,14,-55,42v0,28,18,42,55,42r530,1v102,-1,175,67,175,170","w":1039},"t":{"d":"267,-208v1,58,20,77,78,77r425,0r0,131r-504,0v-116,-3,-166,-47,-166,-167r0,-258r-100,0r0,-131r100,0r0,-222r167,0r0,222r503,0r0,131r-503,0r0,217","w":917},"u":{"d":"198,0v-119,6,-198,-71,-198,-170r0,-386r167,0r0,358v0,39,19,59,58,59r506,0r0,-417r167,0r0,556r-700,0"},"v":{"d":"167,-139r564,0r0,-417r167,0r0,556r-898,0r0,-556r167,0r0,417"},"w":{"d":"197,0v-115,4,-197,-68,-197,-170r0,-386r167,0r0,358v0,39,19,59,58,59r273,0r0,-417r167,0r0,417r326,0r0,-417r167,0r0,556r-961,0","w":1323},"x":{"d":"132,-208r646,0r0,-131r-646,0r0,131xm1,-138v-2,-70,61,-133,131,-131r0,131r-131,0xm0,-138r132,0r0,138r-132,0r0,-138xm1,-396v-2,71,61,133,131,131r0,-131r-131,0xm0,-396r132,0r0,-158r-132,0r0,158xm909,-138v2,-70,-61,-133,-131,-131r0,131r131,0xm910,-138r-132,0r0,138r132,0r0,-138xm909,-396v2,71,-61,133,-131,131r0,-131r131,0xm910,-396r-132,0r0,-158r132,0r0,158xm133,-454v-2,62,53,117,115,115r-115,0r0,-115xm133,-94v-2,-62,53,-117,115,-115r-115,0r0,115xm777,-454v2,62,-53,117,-115,115r115,0r0,-115xm778,-93v2,-62,-54,-117,-115,-115r115,0r0,115","w":1017},"y":{"d":"754,92v53,-1,68,-31,66,-92r-622,0v-119,6,-198,-71,-198,-170r0,-386r167,0r0,336v-1,49,32,82,81,81r572,0r0,-417r167,0r0,576v3,124,-85,207,-204,207r-769,0r0,-135r740,0","w":1169},"z":{"d":"0,-170v0,101,66,170,175,170r738,0r0,-131r-704,1v-37,0,-56,-14,-56,-43v0,-28,19,-42,56,-42r529,-1v102,1,175,-66,175,-169v0,-102,-66,-171,-175,-171r-707,-2r0,131r674,2v37,0,55,14,55,42v0,28,-18,42,-55,42r-530,1v-102,-1,-175,67,-175,170","w":1039},"{":{"d":"0,-466v58,7,98,-17,100,-66v3,-102,-10,-222,10,-308v23,-50,68,-91,143,-91r196,0r0,153r-163,0v-22,0,-33,11,-33,33r0,289v1,35,-29,68,-64,67v36,0,65,30,64,66r0,290v0,22,11,33,33,33r163,0r0,153r-196,0v-87,1,-153,-65,-153,-153r0,-246v-1,-49,-42,-75,-100,-67r0,-153","w":515},"|":{"w":211},"}":{"d":"349,-778v0,-93,-61,-152,-153,-153r-196,0r0,153r163,0v22,0,33,11,33,33r0,289v-1,35,29,68,64,67v-36,0,-65,30,-64,66r0,290v0,22,-11,33,-33,33r-163,0r0,153r196,0v91,0,153,-64,153,-153r0,-246v1,-49,42,-75,100,-67r0,-153v-58,7,-99,-17,-100,-66r0,-246","w":515},"~":{"w":342},"\u0131":{"w":256},"\u00c7":{"w":729},"\u00d6":{"w":1084},"\u00dc":{"w":761},"\u00e7":{"w":578},"\u00f6":{"d":"7,-368v-3,-111,96,-207,207,-207r536,0v112,-3,207,95,207,207r0,162v3,111,-96,207,-207,207r-536,0v-110,3,-207,-97,-207,-207r0,-162xm264,-445v-45,-1,-85,40,-85,85r0,138v-1,45,40,85,85,85r428,0v45,1,85,-40,85,-85r0,-138v1,-45,-40,-85,-85,-85r-428,0xm289,-650r0,-128r379,0r0,128r-379,0","w":1084},"\u00fc":{"d":"198,0v-119,6,-198,-71,-198,-170r0,-386r167,0r0,358v0,39,19,59,58,59r506,0r0,-417r167,0r0,556r-700,0xm284,-650r0,-128r379,0r0,128r-379,0","w":1032},"\u00a0":{"w":668}}});
